tree
version=v2
num_class=1
num_tree_per_iteration=1
label_index=0
max_feature_idx=27
objective=binary sigmoid:1
feature_names=feature_0 feature_1 feature_2 feature_3 feature_4 feature_5 feature_6 feature_7 feature_8 feature_9 feature_10 feature_11 feature_12 feature_13 feature_14 feature_15 feature_16 feature_17 feature_18 feature_19 feature_20 feature_21 feature_22 feature_23 feature_24 feature_25 feature_26 feature_27
feature_infos=[0.27500000000000002:6.6950000000000003] [-2.4169999999999998:2.4300000000000002] [-1.7430000000000001:1.7430000000000001] [0.019:5.7000000000000002] [-1.7430000000000001:1.7430000000000001] [0.159:4.1900000000000004] [-2.9410000000000003:2.9700000000000002] [-1.7409999999999999:1.7409999999999999] [0:2.173] [0.19:5.1929999999999996] [-2.9039999999999999:2.9089999999999998] [-1.742:1.7430000000000001] [0:2.2149999999999999] [0.26400000000000001:6.5229999999999997] [-2.7280000000000002:2.7269999999999999] [-1.742:1.742] [0:2.548] [0.36499999999999999:6.0679999999999996] [-2.4950000000000001:2.496] [-1.74:1.7430000000000001] [0:3.1019999999999999] 1:0:2:3:4:5:6:7 [0.41899999999999998:7.3920000000000003] [0.46100000000000002:3.6819999999999999] [0.38400000000000001:6.5829999999999993] [0.093000000000000013:7.8600000000000003] [0.38900000000000001:4.5430000000000001] [0.48899999999999999:4.3159999999999998]
tree_sizes=2473 2514 2494 2493 2501 2511 2485 2515 2501 2511

Tree=0
num_leaves=31
num_cat=0
split_feature=25 26 27 25 25 24 22 5 5 27 26 27 25 26 27 24 3 25 13 3 22 19 5 24 4 4 25 24 13 24
split_gain=258.038 165.11 154.742 63.219 70.8123 52.7563 84.2546 36.0199 33.6019 27.9057 27.8139 26.5869 26.0761 22.1221 21.9403 33.7759 17.9554 17.3962 16.275 15.194 14.467 15.3902 14.2355 13.4469 12.7354 13.7208 12.6664 12.7077 12.328 14.4412
threshold=1.2815000000000001 0.78050000000000008 0.90450000000000019 0.98450000000000015 0.6785000000000001 1.0265000000000002 1.0445000000000002 0.82550000000000001 1.0195000000000003 0.9225000000000001 0.86950000000000016 0.78850000000000009 0.62350000000000005 0.88850000000000018 0.88950000000000007 1.1225000000000003 1.9205000000000003 0.98950000000000016 1.3835000000000004 1.8335000000000004 0.94750000000000012 -0.96449999999999991 1.3365000000000002 0.71850000000000014 1.2535000000000001 -0.27149999999999996 0.58650000000000013 0.74550000000000016 0.96150000000000013 0.75150000000000006
decision_type=2 2 2 2 2 2 2 2 2 2 2 2 2 2 2 2 2 2 2 2 2 2 2 2 2 2 2 2 2 2
left_child=1 7 3 4 28 6 -4 23 13 22 11 -6 -7 -5 20 -16 17 -14 -19 -17 -2 -22 26 -1 25 -8 27 -9 29 -3
right_child=14 2 5 8 10 12 24 9 -10 -11 -12 -13 16 -15 15 19 -18 18 -20 -21 21 -23 -24 -25 -26 -27 -28 -29 -30 -31
leaf_value=0.10284758317169626 0.081717548115204597 0.16920083703122518 0.061477323984852811 0.079260885438702716 0.18080904101407977 0.099309317207388309 0.12110846920445478 0.12408276028202063 0.17475193328198171 0.017008281489650057 0.1969212081555923 0.1235008337668447 0.16066263555873586 0.13517987794167297 0.05173771107426077 0.10127986202068245 0.10275151646010305 0.11491813432626971 0.17550668759677757 0.045185775908694936 0.063338584813271967 0.15085137998011328 0.17902887439915816 0.074439733286902621 0.085450775035909657 0.16644963581922742 0.14411108005613313 0.055249166772639538 0.16659762686134424 0.11481669961729626
leaf_count=283 121 62 307 129 277 161 135 75 112 22 751 115 457 158 422 324 96 203 57 57 26 90 57 409 44 133 139 42 102 234
internal_value=0 0.217752 0.42333 0.803342 0.987405 -0.0394609 -0.496888 -0.48946 0.0924624 0.0498958 1.24088 0.808221 0.251245 -0.270801 -0.88835 -1.04647 0.397149 0.506114 0.0923076 -0.613956 -0.35262 0.153016 0.203224 -0.750565 0.236446 0.400485 0.00157742 -0.484247 0.259469 0.0524468
internal_count=5600 4560 3533 1940 1541 1593 619 1027 399 335 1143 392 974 287 1040 803 813 717 260 381 237 116 313 692 312 268 256 117 398 296
shrinkage=1


Tree=1
num_leaves=31
num_cat=0
split_feature=25 26 25 25 3 5 22 5 26 22 22 26 22 3 26 24 9 25 3 5 24 26 19 13 9 19 24 5 23 3
split_gain=232.567 149.461 79.7137 118.312 38.3157 33.9073 19.959 19.4367 21.805 18.5965 19.0683 17.7145 20.2141 15.8739 14.2707 13.2396 12.7568 12.7083 12.4665 12.2694 11.595 11.5527 11.8451 11.5454 11.2504 10.1043 9.87802 9.37985 9.34468 10.6218
threshold=1.2815000000000001 0.77650000000000008 0.62350000000000005 0.98950000000000016 1.6175000000000004 0.82550000000000001 1.0445000000000002 0.88150000000000006 1.0375000000000003 1.0025000000000002 0.84950000000000014 0.97650000000000003 0.78450000000000009 0.97650000000000003 0.94950000000000012 0.71850000000000014 0.89250000000000018 2.0390000000000006 1.1435000000000002 1.5755000000000001 1.7450000000000003 1.1205000000000003 0.62900000000000011 0.73250000000000004 0.81850000000000012 1.0425000000000002 1.1005000000000003 0.98050000000000004 0.98050000000000004 0.33650000000000008
decision_type=2 2 2 2 2 2 2 2 2 2 2 2 2 2 2 2 2 2 2 2 2 2 2 2 2 2 2 2 2 2
left_child=1 5 19 4 7 15 11 18 -9 10 -5 24 -13 -7 27 25 -15 -8 -4 -3 23 -16 -23 -6 -2 28 -14 -11 -1 -30
right_child=6 2 3 9 20 13 17 8 -10 14 -12 12 26 16 21 -17 -18 -19 -20 -21 -22 22 -24 -25 -26 -27 -28 -29 29 -31
leaf_value=-0.070541453406693988 -0.063694696339596971 -0.018268219940631856 0.040536711276372622 0.0050468732160738579 0.041073763562594706 0.020651352864842279 -0.011240886118261467 0.065302003278970011 0.032851254148682729 -0.048367080735581769 -0.034450629006536941 -0.0053636137701500485 -0.077843794406284653 -0.049414992210901412 0.046233340678247803 -0.048147811369761845 0.016529617086431816 -0.054394845292876338 0.012504728853908589 0.032712218632545885 -0.056054581121086335 -0.014206068541919782 0.048014347247125215 -0.0035552662953019934 0.00058016734174086166 -0.05701248666597733 -0.049041183946400627 0.032225489254395945 0.056549891419987078 -0.012066252716263076
leaf_count=23 39 534 688 216 89 198 258 636 310 53 284 61 300 79 123 399 47 93 208 52 28 102 44 169 91 58 198 20 26 174
internal_value=0 0.207189 0.400353 0.5339 0.786129 -0.474962 -0.842165 0.892352 1.09303 -0.101684 -0.347898 -1.04008 -1.19477 0.0589292 0.258551 -0.728684 -0.497018 -0.453583 0.680513 -0.274894 0.103404 0.471952 0.0907344 0.236521 -0.374138 -0.395616 -1.32798 -0.527041 -0.201945 -0.0629231
internal_count=5600 4560 3556 2970 2128 1004 1040 1842 946 842 500 689 559 324 342 680 126 351 896 586 286 269 146 258 130 281 498 73 223 200
shrinkage=0.05


Tree=2
num_leaves=31
num_cat=0
split_feature=27 26 24 22 5 3 5 22 27 26 26 22 22 22 24 26 26 27 5 18 18 27 24 22 1 24 4 26 13 19
split_gain=148.117 184.435 89.3492 94.5529 40.4413 27.3787 27.2311 19.0733 22.2821 18.7714 16.1379 13.5399 13.5162 18.567 13.3548 13.0963 13.0848 12.6295 12.4813 11.7266 11.1861 10.885 10.6951 12.1689 10.6911 10.6851 10.5366 15.4816 10.235 10.0934
threshold=0.90250000000000019 0.81150000000000011 1.0265000000000002 1.0445000000000002 0.82050000000000012 1.9205000000000003 0.89650000000000007 1.0355000000000001 0.83850000000000013 1.3665 1.2195000000000003 1.5530000000000002 1.0465000000000002 0.74450000000000016 0.78250000000000008 0.89850000000000019 0.77250000000000008 1.0885000000000002 1.3665 -0.80349999999999988 0.037500000000000012 0.73350000000000015 0.73550000000000015 0.8015000000000001 -0.50249999999999984 0.71850000000000014 -1.2844999999999998 0.86050000000000015 0.78050000000000008 0.8035000000000001
decision_type=2 2 2 2 2 2 2 2 2 2 2 2 2 2 2 2 2 2 2 2 2 2 2 2 2 2 2 2 2 2
left_child=1 4 3 17 16 12 7 8 26 14 24 -11 13 -4 28 -10 25 22 -6 -13 21 -18 -2 -24 -7 29 27 -3 -5 -1
right_child=2 6 5 9 18 10 -8 -9 15 11 -12 19 -14 -15 -16 -17 20 -19 -20 -21 -22 -23 23 -25 -26 -27 -28 -29 -30 -31
leaf_value=-0.0073029196712544242 -0.016483738266246096 -0.056226662966493993 0.037243245973663699 -0.010522150734305409 0.0026461442993008974 0.042245029951626607 0.046440568748069885 0.04858761207873491 -0.04773094810436717 -0.084102271262559564 -0.065655930649870728 -0.063081051195993595 0.015762579862828231 -0.011458033620908884 -0.0058759188038779945 0.0046124893907736877 0.0083286333310169571 -0.086782249315688301 0.050838468825565433 0.0097202305841271319 0.025447545611885669 -0.058886351658876616 -0.020895762195453083 -0.072301035629168051 -0.033948366204301507 -0.046187366594338752 0.031795753626302992 0.0324895757065886 0.060645280643654702 -0.049344488016781651
leaf_count=189 58 36 90 29 327 30 934 224 68 41 98 34 526 630 203 164 47 207 65 64 74 50 56 261 48 370 483 44 68 82
internal_value=0 0.298664 -0.358922 -0.810713 -0.317348 -0.0338865 0.680672 0.453822 0.308105 -0.107649 -0.772754 -0.71612 0.070829 -0.107589 0.174807 -0.215088 -0.571915 -1.33898 0.212204 -0.311304 -0.0786672 -0.526581 -1.11994 -1.26446 -0.0928599 -0.702852 0.524037 -0.150543 0.787251 -0.400718
internal_count=5600 3157 2443 1021 1204 1422 1953 1019 795 439 176 139 1246 720 300 232 812 582 392 98 171 97 375 317 78 641 563 80 97 271
shrinkage=0.05


Tree=3
num_leaves=31
num_cat=0
split_feature=25 26 27 25 25 25 26 24 22 27 5 27 22 27 3 5 25 3 5 22 17 6 5 4 25 13 24 27 24 3
split_gain=205.442 146.989 120.56 48.7787 42.9311 39.2895 31.1871 29.0385 55.8713 27.4702 25.904 24.2132 24.1528 24.5602 22.82 21.5809 17.496 15.6602 14.9168 14.0717 13.142 12.1895 11.6379 11.5599 13.7375 10.9054 12.5602 10.4004 10.2465 10.172
threshold=1.0565000000000002 0.78050000000000008 0.90450000000000019 0.6785000000000001 1.4915 0.62350000000000005 0.86950000000000016 1.0065000000000002 0.99950000000000017 0.78250000000000008 0.82550000000000001 0.75650000000000006 1.0025000000000002 1.0445000000000002 1.6740000000000002 0.91550000000000009 0.94850000000000012 1.8335000000000004 1.2445000000000002 0.73650000000000004 2.1615000000000006 -1.2374999999999998 1.5755000000000001 -0.039499999999999993 0.81350000000000011 0.96150000000000013 0.75150000000000006 0.9225000000000001 1.2035000000000002 0.45550000000000007
decision_type=2 2 2 2 2 2 2 2 2 2 2 2 2 2 2 2 2 2 2 2 2 2 2 2 2 2 2 2 2 2
left_child=1 10 3 25 12 22 9 8 -7 16 29 21 13 15 18 -2 -5 20 -9 -17 -6 -12 -4 24 -11 26 -3 -13 -21 -1
right_child=4 2 5 6 17 7 -8 14 -10 23 11 27 -14 -15 -16 19 -18 -19 -20 28 -22 -23 -24 -25 -26 -27 -28 -29 -30 -31
leaf_value=-0.0082033028811009587 -0.03599909263529838 0.041746635640685148 -0.039580301392174347 0.058125446833881649 -0.047005132938931764 -0.057212826088312366 0.062685920491323349 0.023242950454383147 0.021379314442893989 0.03458350647962026 -0.0472128223059173 -0.020425259197421095 0.0050919136779366547 -0.064092400066437114 -0.013299083017745733 0.071779011675729365 -0.011395179058987818 -0.096962996070842092 0.062990739000158127 -0.017861215058779942 0.015256644821202901 0.029991875111881828 0.019987201999956301 0.02216413692018528 -0.061614855385568858 0.039569321922273241 -0.0091237530592508161 -0.097929980712076425 0.037995357051269753 -0.038162993370534026
leaf_count=145 247 62 248 246 599 156 854 358 217 21 23 82 361 142 131 30 43 60 130 123 36 196 38 75 52 102 234 22 45 522
internal_value=0 0.259168 0.483726 0.837842 -0.58416 0.0197737 1.02885 0.209041 -0.232428 0.591867 -0.408289 0.0584268 -0.30659 -0.557134 0.476091 -0.325475 0.954461 -0.961879 0.676464 0.167993 -0.869502 0.43756 -0.633747 -0.1107 -0.679159 0.224196 0.0295668 -0.737286 -0.0574093 -0.633103
internal_count=5600 3957 2967 1689 1643 1278 1291 992 373 437 990 323 948 587 619 445 289 695 488 198 635 219 286 148 73 398 296 104 168 667
shrinkage=0.05


Tree=4
num_leaves=31
num_cat=0
split_feature=25 26 27 25 25 25 26 24 22 27 5 27 22 27 3 5 25 3 5 22 24 17 0 25 6 5 11 5 14 26
split_gain=185.695 133.172 109.85 44.7552 38.7872 35.4665 28.7556 26.2881 48.8607 25.0437 23.3658 21.8754 21.7989 22.1947 19.956 19.4566 16.0033 14.3464 12.8726 12.8084 12.7319 16.2341 14.2999 12.7886 11.0086 10.8517 10.7611 10.4892 10.4273 10.1204
threshold=1.0565000000000002 0.78050000000000008 0.90450000000000019 0.6785000000000001 1.4915 0.62350000000000005 0.86950000000000016 1.0185000000000002 0.99950000000000017 0.78250000000000008 0.82550000000000001 0.75650000000000006 1.0025000000000002 1.0445000000000002 1.6740000000000002 0.91550000000000009 0.94850000000000012 1.8335000000000004 1.2445000000000002 0.73650000000000004 1.3545000000000003 1.5825000000000002 1.1075000000000002 2.0390000000000006 -1.2374999999999998 1.2105000000000001 -0.39449999999999991 1.5755000000000001 0.88850000000000018 0.84050000000000014
decision_type=2 2 2 2 2 2 2 2 2 2 2 2 2 2 2 2 2 2 2 2 2 2 2 2 2 2 2 2 2 2
left_child=1 10 3 -3 12 27 9 8 -7 16 -1 24 13 15 18 -2 -5 20 -9 -17 22 -22 23 25 -12 -6 -16 -4 -11 -14
right_child=4 2 5 6 17 7 -8 14 -10 28 11 -13 29 -15 26 19 -18 -19 -20 -21 21 -23 -24 -25 -26 -27 -28 -29 -30 -31
leaf_value=-0.03007466406260563 -0.034171014563527391 0.010667027800453588 -0.037567210194892987 0.055687579969788049 -0.041920232142950868 -0.053424147836170721 0.060126088198485833 0.02248874373378508 0.019554118609331331 -0.020358898894108236 -0.044708771572039417 -0.035026924163452405 -0.064419733632072249 -0.06092732837760189 0.023364535810334042 0.068723767475656228 -0.010814481443820212 -0.092627105268016957 0.059791420812017451 -0.0027257930963349077 -0.03310238735004007 0.047694654553158029 -0.077769747350913215 -0.072840744508540084 0.028568707780727565 0.00059459190294235478 -0.035450464047234551 0.019014778632459699 0.041777501926684335 0.0089110851022509169
leaf_count=667 247 398 248 246 190 157 854 354 223 112 23 104 20 142 52 30 43 60 128 168 112 32 128 85 196 88 78 38 36 341
internal_value=0 0.247111 0.461601 0.801135 -0.555152 0.0188508 0.98524 0.199058 -0.214866 0.565015 -0.388064 0.0556022 -0.291313 -0.529343 0.457455 -0.309174 0.913171 -0.914301 0.64701 0.15981 -0.826095 -0.303144 -0.979741 -0.776913 0.41656 -0.569222 -0.23828 -0.601691 -0.105129 0.0967787
internal_count=5600 3957 2967 1689 1643 1278 1291 992 380 437 990 323 948 587 612 445 289 695 482 198 635 144 491 363 219 278 130 286 148 361
shrinkage=0.05


Tree=5
num_leaves=31
num_cat=0
split_feature=25 25 26 25 22 26 5 9 5 9 9 24 25 25 26 9 24 0 24 3 10 26 13 22 22 25 14 0 3 11
split_gain=171.498 114.697 67.3998 38.2299 38.7183 32.4286 30.3796 30.121 21.6537 16.0857 14.9616 14.007 12.7193 12.1058 13.6349 11.5449 15.8 11.5375 11.3326 11.2368 11.6758 11.0699 10.9395 12.8543 16.0536 10.2003 16.691 11.1608 10.0665 9.79461
threshold=1.0675000000000001 0.6695000000000001 0.80850000000000011 1.6050000000000002 1.0265000000000002 1.0825000000000002 0.82050000000000012 1.1375000000000002 0.88150000000000006 1.3035000000000003 1.2475000000000003 1.1855000000000002 0.94850000000000012 0.94550000000000012 0.77250000000000008 1.2895000000000003 1.0065000000000002 1.7125000000000001 0.78250000000000008 2.4510000000000005 -1.1604999999999996 1.0855000000000001 1.4485000000000003 0.79150000000000009 1.0605000000000002 0.97350000000000014 0.42050000000000004 1.7985000000000004 1.3845000000000003 -0.55999999999999994
decision_type=2 2 2 2 2 2 2 2 2 2 2 2 2 2 2 2 2 2 2 2 2 2 2 2 2 2 2 2 2 2
left_child=1 7 6 4 11 8 13 22 10 19 12 21 28 14 -3 18 -17 -10 -6 20 -7 29 23 -1 -25 27 -27 -22 -4 -2
right_child=3 2 5 -5 15 9 -8 -9 17 -11 -12 -13 -14 -15 -16 16 -18 -19 -20 -21 25 -23 -24 24 -26 26 -28 -29 -30 -31
leaf_value=-0.0019950899838036425 -0.051337412022308654 -0.031119590350487943 0.03529537205782815 -0.049442909180506284 0.041009335534428093 -0.036540650461992258 0.025767593007798434 0.019376214949150632 0.055609251725964759 0.038592123024163462 0.065144100746759012 -0.0082468426027541911 -0.0038348982900107695 -0.068500308141999283 0.019966753352590058 -0.0097377055178924313 0.06707173154314007 0.018887551714407112 -0.011949495299386947 -0.062667278426719972 0.032161293116418167 -0.065077086696411976 0.018334377376936894 -0.036639961015586073 -0.0019670503030264365 0.011071387635148767 -0.082594250088714016 -0.024685685893825304 -0.0028316671845946169 -0.018489900320878362
leaf_count=232 146 207 449 532 50 58 165 239 685 159 93 205 152 58 71 45 67 101 219 26 211 126 70 600 173 66 27 42 84 242
internal_value=0 0.225734 0.468756 -0.54755 -0.334198 0.625388 -0.193406 -0.257508 0.779052 0.223827 0.540038 -0.607742 0.436693 -0.538204 -0.364179 0.182929 0.723863 1.01741 -0.0424539 0.022019 0.104902 -0.784443 -0.400395 -0.453699 -0.577876 0.244871 -0.323534 0.454769 0.584923 -0.617138
internal_count=5600 3968 2654 1632 1100 2153 501 1314 1564 589 778 719 685 336 278 381 112 786 269 430 404 514 1075 1005 773 346 93 253 533 388
shrinkage=0.05


Tree=6
num_leaves=31
num_cat=0
split_feature=27 26 24 22 5 5 24 0 22 0 5 17 19 26 11 22 22 23 27 14 2 24 27 27 24 0 22 13 27 24
split_gain=115.905 121.404 55.2472 60.5072 29.2933 28.0442 18.6401 16.7186 14.7812 14.7587 16.3788 12.0796 12.9409 11.6253 10.9849 12.0707 12.2188 11.0012 10.9081 10.8813 10.6034 12.0946 10.4212 10.4174 10.989 10.2167 10.0601 9.83338 9.3898 9.12014
threshold=0.90250000000000019 0.81150000000000011 1.0265000000000002 1.0485000000000004 0.88150000000000006 0.82550000000000001 2.3415000000000004 1.3835000000000004 0.97150000000000014 1.6635000000000002 1.6890000000000003 0.59750000000000003 0.64800000000000013 1.3665 1.4915 1.0465000000000002 0.77950000000000019 0.98750000000000016 0.80650000000000011 0.59050000000000014 -1.0085 0.89850000000000019 1.5530000000000002 1.0885000000000002 0.73550000000000015 0.52950000000000019 0.8015000000000001 1.3315000000000001 1.5795000000000001 0.71450000000000014
decision_type=2 2 2 2 2 2 2 2 2 2 2 2 2 2 2 2 2 2 2 2 2 2 2 2 2 2 2 2 2 2
left_child=1 5 3 7 8 25 14 23 -3 10 13 12 -10 20 15 16 27 -17 -7 -19 -5 -22 -12 24 -2 -1 -26 -4 -18 -27
right_child=2 4 6 9 -6 18 -8 -9 11 -11 22 -13 -14 -15 -16 17 28 19 -20 -21 21 -23 -24 -25 26 29 -28 -29 -30 -31
leaf_value=-0.048007753614367966 0.012841777821752063 0.0066847610801335638 0.0087731336396449245 0.0476930741122654 0.040890379715485085 0.017533224384092588 -0.052387804126329145 -0.082365614678152857 0.025458666628813915 -0.054266638249407168 0.091753730015526891 0.040843325042667217 -0.072385510593801813 -0.035422948759121727 -0.032792846223111259 0.033018647126535516 -0.010376930508039129 0.013621582627013604 -0.030112317963595044 -0.025807200638674463 0.015243476721505632 -0.036078481979148348 -0.0019394522565751077 -0.06811037310023664 -0.0024906229422011015 -0.0022291213749515925 -0.053159520047036807 0.082879810412767999 -0.078669145398372886 -0.026741321350732313
leaf_count=137 43 622 104 47 978 317 75 168 40 57 30 299 21 104 101 184 580 255 57 98 114 78 20 131 50 237 184 22 21 426
internal_value=0 0.257236 -0.326424 -0.682606 0.568147 -0.250999 -0.0724238 -1.11362 0.322007 -0.130356 0.00833742 0.649013 -0.171417 -0.148156 -0.0188098 0.0322227 -0.136298 0.261187 0.204313 0.053397 0.0961099 -0.11287 1.084 -0.894206 -0.674201 -0.462214 -0.845698 0.433333 -0.255334 -0.359215
internal_count=5600 3134 2466 1026 1960 1174 1440 576 982 450 393 360 61 343 1365 1264 727 537 374 353 239 192 50 408 277 800 234 126 601 663
shrinkage=0.05


Tree=7
num_leaves=31
num_cat=0
split_feature=25 25 26 27 25 9 5 26 9 27 27 24 27 5 26 24 6 13 17 3 5 25 25 25 26 5 3 14 2 0
split_gain=152.081 101.155 58.5634 66.2992 32.8614 29.0807 22.4893 21.3066 19.2167 17.7197 16.4849 15.6254 21.3814 15.3618 14.1903 13.7642 13.5371 12.9632 12.1821 11.4701 11.7264 12.2456 11.2919 11.0846 12.1957 10.982 10.4918 10.3006 10.243 10.1523
threshold=1.0675000000000001 0.68250000000000011 0.80850000000000011 0.90450000000000019 1.6175000000000004 1.0415000000000003 0.82050000000000012 0.86350000000000016 1.2680000000000005 0.85250000000000015 0.7965000000000001 1.2745000000000002 0.90250000000000019 0.88650000000000007 0.79050000000000009 2.1485000000000007 -1.3624999999999998 1.7045000000000001 0.73550000000000015 2.0310000000000001 1.2955000000000003 0.99250000000000005 0.83950000000000014 0.94550000000000012 0.77250000000000008 0.59450000000000014 1.4035000000000004 -0.28249999999999992 1.3615000000000002 0.88950000000000007
decision_type=2 2 2 2 2 2 2 2 2 2 2 2 2 2 2 2 2 2 2 2 2 2 2 2 2 2 2 2 2 2
left_child=1 5 6 7 11 9 23 10 16 14 -4 12 13 18 -1 -13 -5 28 -2 20 21 -18 -12 24 -3 29 -27 -7 -14 -16
right_child=4 2 3 8 -6 27 -8 -9 -10 -11 22 15 17 -15 25 -17 19 -19 -20 -21 -22 -23 -24 -25 -26 26 -28 -29 -30 -31
leaf_value=-0.019201294237190587 -0.052856297778806072 -0.028448219224178957 0.038740209120596836 -0.040409830419637617 -0.046904546899632457 0.036014069583145895 0.022429873531124984 0.054427089880009542 0.035045437436857362 -0.037717742307261139 0.025330984024424866 0.011964031794600684 -0.053519007755025098 0.011759472507968188 -0.066493381913948907 -0.062176936640506546 0.012700130958625065 0.0073576084355929557 -0.0072993908698362406 -0.037395698234846168 0.044045436913161706 -0.02672899209268554 -0.046224033490766217 -0.063982151682341198 0.020873955857243592 0.04096381001934471 -0.024932509637128855 0.00048402310307126049 0.0039358893552055773 0.020765491760278636
leaf_count=492 97 192 211 70 513 134 155 877 233 352 42 249 301 209 29 28 374 50 150 55 90 101 48 58 69 115 31 215 35 25
internal_value=0 0.213459 0.453432 0.600461 -0.516362 -0.220676 -0.183555 0.925547 0.19903 -0.387963 0.459879 -0.323709 -0.459968 -0.166188 -0.201504 0.0893337 0.0305971 -0.808591 -0.504007 0.125416 0.211303 0.0855204 -0.259336 -0.486932 -0.310463 0.25078 0.538376 0.282259 -0.95066 -0.521834
internal_count=5600 3968 2575 2101 1632 1393 474 1178 923 1044 301 1119 842 456 692 277 690 386 247 620 565 475 90 319 261 200 146 349 336 54
shrinkage=0.05


Tree=8
num_leaves=31
num_cat=0
split_feature=25 26 27 5 22 25 25 9 27 5 27 0 5 27 26 22 26 5 26 1 3 25 25 0 9 25 25 25 1 0
split_gain=138.322 71.7442 93.1649 34.0428 29.852 25.2318 24.1128 19.9757 18.373 17.5608 19.9223 15.9057 19.1412 14.6786 17.0585 13.8035 13.3657 13.2307 11.7 11.3475 11.1061 11.0271 13.8938 10.8347 13.3247 10.3291 9.77215 19.9136 11.1413 9.73997
threshold=1.2815000000000001 0.81150000000000011 0.90250000000000019 0.88150000000000006 1.0445000000000002 0.98450000000000015 0.6695000000000001 1.1035000000000001 1.0285000000000004 0.82550000000000001 0.80650000000000011 1.2835000000000003 0.7985000000000001 1.0835000000000001 1.1395000000000002 1.1705000000000003 0.94150000000000011 1.4790000000000003 0.86950000000000016 -0.70949999999999991 2.0965000000000003 1.0115000000000001 0.7985000000000001 0.94850000000000012 0.86950000000000016 0.46200000000000002 0.59750000000000003 0.97350000000000014 -1.1744999999999999 1.3475000000000004
decision_type=2 2 2 2 2 2 2 2 2 2 2 2 2 2 2 2 2 2 2 2 2 2 2 2 2 2 2 2 2 2
left_child=1 9 3 5 11 6 23 -6 17 -1 -11 12 19 14 -13 -10 -7 -2 29 -4 25 22 -5 24 -3 -9 -14 28 -28 -8
right_child=8 2 4 21 7 16 18 20 15 10 -12 13 26 -15 -16 -17 -18 -19 -20 -21 -22 -23 -24 -25 -26 -27 27 -29 -30 -31
leaf_value=-0.021236099415036742 -0.023097769290684456 -0.056430949865023519 0.0024947766340049351 0.036144376067429977 -0.00086800628841340551 -0.033129040871293321 0.026875506960706726 -0.02936301624015988 -0.057583673342333164 0.016501452165407868 -0.03557955842489207 -0.029492648214136608 -0.026913918922918889 -0.064103914311784513 0.06669267407660634 -0.024896583466227414 0.02174674077648182 0.043550593959827445 0.050184453543487197 -0.045865118455282294 -0.031418682191159848 0.02216516190300076 0.066327985876678319 0.024537170013643597 0.019256190925858688 0.043709452753781922 -0.021994855264121323 -0.013025295525310255 0.046921169222001624 -0.045504779958015072
leaf_count=832 459 59 74 279 429 123 152 21 353 315 97 122 69 106 22 208 71 32 346 145 25 141 385 74 39 267 28 147 158 22
internal_value=0 0.152618 0.310147 0.648171 -0.0333447 0.374734 0.559154 0.264155 -0.657859 -0.257445 0.0831263 -0.285475 -0.113129 -0.713898 -0.29585 -0.907616 -0.264064 -0.374752 0.78289 -0.590861 0.652828 0.95602 1.06907 -0.0893084 -0.527437 0.765866 0.147693 0.291058 0.730333 0.35405
internal_count=5600 4548 3304 1691 1613 886 692 742 1052 1244 412 871 621 250 144 561 194 491 520 219 313 805 664 172 98 288 402 333 186 174
shrinkage=0.05


Tree=9
num_leaves=31
num_cat=0
split_feature=25 25 26 27 25 22 9 25 26 27 5 9 5 27 27 26 9 5 3 3 23 22 25 26 25 22 2 3 9 24
split_gain=125.961 85.52 48.7297 55.7107 28.0011 31.2689 25.1033 19.7614 18.8433 17.0244 16.5821 16.1388 15.1696 15.0084 13.9857 13.7183 13.2205 12.8948 13.5914 12.0922 11.0923 14.2194 11.0137 15.4879 10.0647 9.84604 14.1609 13.5244 9.68925 14.4972
threshold=1.0675000000000001 0.68250000000000011 0.80850000000000011 0.90450000000000019 1.6175000000000004 1.0265000000000002 1.1375000000000002 0.69750000000000012 0.86350000000000016 1.0285000000000004 1.0895000000000004 1.3035000000000003 0.85250000000000015 0.7965000000000001 0.85250000000000015 0.78050000000000008 0.91050000000000009 0.81250000000000011 2.6165000000000007 0.65850000000000009 1.2555000000000003 1.0735000000000003 0.94550000000000012 0.77250000000000008 0.83950000000000014 0.81650000000000011 0.64150000000000007 0.46150000000000008 1.2895000000000003 1.0065000000000002
decision_type=2 2 2 2 2 2 2 2 2 2 2 2 2 2 2 2 2 2 2 2 2 2 2 2 2 2 2 2 2 2
left_child=1 6 7 8 5 9 14 -3 13 10 16 17 22 -4 15 20 -2 -5 -19 -12 21 25 23 -9 -15 26 27 -1 -7 -30
right_child=4 2 3 11 -6 28 -8 12 -10 -11 19 -13 -14 24 -16 -17 -18 18 -20 -21 -22 -23 -24 -25 -26 -27 -28 -29 29 -31
leaf_value=0.034192972887098182 -0.043743464231239107 0.067050966904532258 0.036047087920510208 -0.016124144526386951 -0.043104331964792103 -0.0017280704455375131 0.017965355248078768 -0.03142035972889317 0.050640873391835976 -0.052403217965259222 -0.026503095450170246 0.033862243786957381 0.01612233774366378 0.022908160349007028 -0.032029740419657629 0.011477468704395753 -0.0068128527423151316 0.016509785185466242 -0.058219048180771726 0.035145418283704218 0.036630353328061062 0.037774638475777021 -0.063467571642764439 0.024228719488518052 -0.044794704324266139 -0.038366218891918644 0.038431997456513121 -0.047835337499655677 -0.010092333091270325 0.063243773736724379
leaf_count=27 229 33 211 253 513 273 262 184 877 196 51 213 125 42 390 237 170 431 26 87 35 37 62 70 48 277 48 80 46 67
internal_value=0 0.195484 0.418153 0.553781 -0.470671 -0.292954 -0.20348 -0.163373 0.856659 -0.537089 -0.353234 0.186632 -0.275792 0.417105 -0.332837 -0.170757 -0.560304 0.0413783 0.244194 0.24767 -0.357352 -0.438592 -0.509023 -0.323845 -0.269306 -0.54074 -0.136106 -0.542123 0.169694 0.665762
internal_count=5600 3968 2575 2101 1632 1119 1393 474 1178 733 537 923 441 301 1131 741 399 710 457 138 504 469 316 254 90 432 155 107 386 113
shrinkage=0.05


end of trees

feature importances:
feature_25=48
feature_26=37
feature_5=35
feature_27=34
feature_22=31
feature_24=28
feature_3=20
feature_9=14
feature_0=10
feature_13=8
feature_19=5
feature_4=4
feature_14=4
feature_17=4
feature_1=3
feature_2=3
feature_6=3
feature_11=3
feature_23=3
feature_18=2
feature_10=1

parameters:
[boosting: gbdt]
[objective: binary]
[metric: binary_logloss]
[tree_learner: serial]
[device_type: cpu]
[data: ]
[valid: ]
[num_iterations: 100]
[learning_rate: 0.05]
[num_leaves: 31]
[num_threads: 0]
[max_depth: -1]
[min_data_in_leaf: 20]
[min_sum_hessian_in_leaf: 0.001]
[bagging_fraction: 0.8]
[bagging_freq: 5]
[bagging_seed: 3]
[feature_fraction: 0.9]
[feature_fraction_seed: 2]
[early_stopping_round: 0]
[max_delta_step: 0]
[lambda_l1: 0]
[lambda_l2: 0]
[min_gain_to_split: 0]
[drop_rate: 0.1]
[max_drop: 50]
[skip_drop: 0.5]
[xgboost_dart_mode: 0]
[uniform_drop: 0]
[drop_seed: 4]
[top_rate: 0.2]
[other_rate: 0.1]
[min_data_per_group: 100]
[max_cat_threshold: 32]
[cat_l2: 10]
[cat_smooth: 10]
[max_cat_to_onehot: 4]
[top_k: 20]
[monotone_constraints: ]
[feature_contri: ]
[forcedsplits_filename: ]
[refit_decay_rate: 0.9]
[verbosity: 0]
[max_bin: 255]
[min_data_in_bin: 3]
[bin_construct_sample_cnt: 200000]
[histogram_pool_size: -1]
[data_random_seed: 1]
[output_model: LightGBM_model.txt]
[snapshot_freq: -1]
[input_model: ]
[output_result: LightGBM_predict_result.txt]
[initscore_filename: ]
[valid_data_initscores: ]
[pre_partition: 0]
[enable_bundle: 1]
[max_conflict_rate: 0]
[is_enable_sparse: 1]
[sparse_threshold: 0.8]
[use_missing: 1]
[zero_as_missing: 0]
[two_round: 0]
[save_binary: 0]
[enable_load_from_binary_file: 1]
[header: 0]
[label_column: ]
[weight_column: ]
[group_column: ]
[ignore_column: ]
[categorical_feature: ]
[predict_raw_score: 0]
[predict_leaf_index: 0]
[predict_contrib: 0]
[num_iteration_predict: -1]
[pred_early_stop: 0]
[pred_early_stop_freq: 10]
[pred_early_stop_margin: 10]
[convert_model_language: ]
[convert_model: gbdt_prediction.cpp]
[num_class: 1]
[is_unbalance: 0]
[scale_pos_weight: 1]
[sigmoid: 1]
[boost_from_average: 1]
[reg_sqrt: 0]
[alpha: 0.9]
[fair_c: 1]
[poisson_max_delta_step: 0.7]
[tweedie_variance_power: 1.5]
[max_position: 20]
[label_gain: ]
[metric_freq: 1]
[is_provide_training_metric: 0]
[eval_at: ]
[num_machines: 1]
[local_listen_port: 12400]
[time_out: 120]
[machine_list_filename: ]
[machines: ]
[gpu_platform_id: -1]
[gpu_device_id: -1]
[gpu_use_dp: 0]

end of parameters

pandas_categorical:[]
